FANN_FLO_2.1
num_layers=3
learning_rate=0.700000
connection_rate=1.000000
network_type=0
learning_momentum=0.000000
training_algorithm=2
train_error_function=1
train_stop_function=1
cascade_output_change_fraction=0.010000
quickprop_decay=-0.000100
quickprop_mu=1.750000
rprop_increase_factor=1.200000
rprop_decrease_factor=0.500000
rprop_delta_min=0.000000
rprop_delta_max=50.000000
rprop_delta_zero=0.100000
cascade_output_stagnation_epochs=12
cascade_candidate_change_fraction=0.010000
cascade_candidate_stagnation_epochs=12
cascade_max_out_epochs=150
cascade_min_out_epochs=50
cascade_max_cand_epochs=150
cascade_min_cand_epochs=50
cascade_num_candidate_groups=2
bit_fail_limit=9.99999977648258209229e-03
cascade_candidate_limit=1.00000000000000000000e+03
cascade_weight_multiplier=4.00000005960464477539e-01
cascade_activation_functions_count=10
cascade_activation_functions=3 5 7 8 10 11 14 15 16 17 
cascade_activation_steepnesses_count=4
cascade_activation_steepnesses=2.50000000000000000000e-01 5.00000000000000000000e-01 7.50000000000000000000e-01 1.00000000000000000000e+00 
layer_sizes=3 10 2 
scale_included=0
neurons (num_inputs, activation_function, activation_steepness)=(0, 0, 0.00000000000000000000e+00) (0, 0, 0.00000000000000000000e+00) (0, 0, 0.00000000000000000000e+00) (3, 3, 1.00000000000000000000e+02) (3, 3, 1.00000000000000000000e+02) (3, 3, 1.00000000000000000000e+02) (3, 3, 1.00000000000000000000e+02) (3, 3, 1.00000000000000000000e+02) (3, 3, 1.00000000000000000000e+02) (3, 3, 1.00000000000000000000e+02) (3, 3, 1.00000000000000000000e+02) (3, 3, 1.00000000000000000000e+02) (0, 3, 1.00000000000000000000e+02) (10, 3, 1.00000000000000000000e+02) (0, 3, 1.00000000000000000000e+02) 
connections (connected_to_neuron, weight)=(0, 4.35509824752807617188e+00) (1, 9.20813620090484619141e-01) (2, -4.60159921646118164062e+00) (0, 8.59193563461303710938e-01) (1, 2.42488121986389160156e+00) (2, 8.58647882938385009766e-01) (0, 4.40797567367553710938e+00) (1, 2.31454566121101379395e-01) (2, -2.66143321990966796875e+00) (0, 6.40771210193634033203e-01) (1, 3.04247832298278808594e+00) (2, -3.37692213058471679688e+00) (0, 2.24749016761779785156e+00) (1, 3.08961248397827148438e+00) (2, -6.14762258529663085938e+00) (0, 3.26925143599510192871e-02) (1, 2.26904869079589843750e+00) (2, -5.89327859878540039062e+00) (0, 4.91833877563476562500e+00) (1, 1.24526810646057128906e+00) (2, -2.86054039001464843750e+00) (0, 2.20211696624755859375e+00) (1, 8.72574985027313232422e-01) (2, -1.49225223064422607422e+00) (0, 4.09650230407714843750e+00) (1, 6.10883831977844238281e-01) (2, -2.60035896301269531250e+00) (3, 1.09906778335571289062e+01) (4, 6.57311499118804931641e-01) (5, 8.56339111924171447754e-02) (6, 7.07505941390991210938e-01) (7, 4.48279052972793579102e-01) (8, 1.15488195419311523438e+00) (9, 1.96361815929412841797e+00) (10, 2.01602578163146972656e+00) (11, -8.39306116104125976562e-02) (12, -5.04306459426879882812e+00) 
