FANN_FLO_2.1
num_layers=3
learning_rate=0.700000
connection_rate=1.000000
network_type=0
learning_momentum=0.000000
training_algorithm=2
train_error_function=1
train_stop_function=1
cascade_output_change_fraction=0.010000
quickprop_decay=-0.000100
quickprop_mu=1.750000
rprop_increase_factor=1.200000
rprop_decrease_factor=0.500000
rprop_delta_min=0.000000
rprop_delta_max=50.000000
rprop_delta_zero=0.100000
cascade_output_stagnation_epochs=12
cascade_candidate_change_fraction=0.010000
cascade_candidate_stagnation_epochs=12
cascade_max_out_epochs=150
cascade_min_out_epochs=50
cascade_max_cand_epochs=150
cascade_min_cand_epochs=50
cascade_num_candidate_groups=2
bit_fail_limit=9.99999977648258209229e-03
cascade_candidate_limit=1.00000000000000000000e+03
cascade_weight_multiplier=4.00000005960464477539e-01
cascade_activation_functions_count=10
cascade_activation_functions=3 5 7 8 10 11 14 15 16 17 
cascade_activation_steepnesses_count=4
cascade_activation_steepnesses=2.50000000000000000000e-01 5.00000000000000000000e-01 7.50000000000000000000e-01 1.00000000000000000000e+00 
layer_sizes=3 10 2 
scale_included=0
neurons (num_inputs, activation_function, activation_steepness)=(0, 0, 0.00000000000000000000e+00) (0, 0, 0.00000000000000000000e+00) (0, 0, 0.00000000000000000000e+00) (3, 3, 1.00000000000000000000e+02) (3, 3, 1.00000000000000000000e+02) (3, 3, 1.00000000000000000000e+02) (3, 3, 1.00000000000000000000e+02) (3, 3, 1.00000000000000000000e+02) (3, 3, 1.00000000000000000000e+02) (3, 3, 1.00000000000000000000e+02) (3, 3, 1.00000000000000000000e+02) (3, 3, 1.00000000000000000000e+02) (0, 3, 1.00000000000000000000e+02) (10, 3, 1.00000000000000000000e+02) (0, 3, 1.00000000000000000000e+02) 
connections (connected_to_neuron, weight)=(0, 3.24478197097778320312e+00) (1, -8.22257459163665771484e-01) (2, -1.45437180995941162109e-01) (0, -1.12958395481109619141e+00) (1, 1.14978528022766113281e+00) (2, -5.54040193557739257812e+00) (0, 3.00218272209167480469e+00) (1, 1.28709673881530761719e+00) (2, 4.71384555101394653320e-01) (0, 4.33930486440658569336e-01) (1, 2.16803383827209472656e+00) (2, -3.86822879314422607422e-01) (0, 4.93534374237060546875e+00) (1, 5.51194858551025390625e+00) (2, 4.43396759033203125000e+00) (0, 5.11696290969848632812e+00) (1, 2.81077265739440917969e-01) (2, -5.80655813217163085938e+00) (0, 6.05392265319824218750e+00) (1, 1.07693970203399658203e+00) (2, 8.46782088279724121094e-01) (0, 1.66256690025329589844e+00) (1, 4.47564983367919921875e+00) (2, -5.54297685623168945312e+00) (0, 1.15787291526794433594e+00) (1, -4.79033946990966796875e-01) (2, -3.39827686548233032227e-01) (3, 2.93867516517639160156e+00) (4, 9.92018997669219970703e-01) (5, -5.48779308795928955078e-01) (6, 1.40062880516052246094e+00) (7, -1.10787153244018554688e+00) (8, 6.76637232303619384766e-01) (9, -1.33470487594604492188e+00) (10, 1.82617497444152832031e+00) (11, 2.78978180885314941406e+00) (12, -4.09565877914428710938e+00) 
