FANN_FLO_2.1
num_layers=3
learning_rate=0.700000
connection_rate=1.000000
network_type=0
learning_momentum=0.000000
training_algorithm=2
train_error_function=1
train_stop_function=1
cascade_output_change_fraction=0.010000
quickprop_decay=-0.000100
quickprop_mu=1.750000
rprop_increase_factor=1.200000
rprop_decrease_factor=0.500000
rprop_delta_min=0.000000
rprop_delta_max=50.000000
rprop_delta_zero=0.100000
cascade_output_stagnation_epochs=12
cascade_candidate_change_fraction=0.010000
cascade_candidate_stagnation_epochs=12
cascade_max_out_epochs=150
cascade_min_out_epochs=50
cascade_max_cand_epochs=150
cascade_min_cand_epochs=50
cascade_num_candidate_groups=2
bit_fail_limit=9.99999977648258209229e-03
cascade_candidate_limit=1.00000000000000000000e+03
cascade_weight_multiplier=4.00000005960464477539e-01
cascade_activation_functions_count=10
cascade_activation_functions=3 5 7 8 10 11 14 15 16 17 
cascade_activation_steepnesses_count=4
cascade_activation_steepnesses=2.50000000000000000000e-01 5.00000000000000000000e-01 7.50000000000000000000e-01 1.00000000000000000000e+00 
layer_sizes=3 10 2 
scale_included=0
neurons (num_inputs, activation_function, activation_steepness)=(0, 0, 0.00000000000000000000e+00) (0, 0, 0.00000000000000000000e+00) (0, 0, 0.00000000000000000000e+00) (3, 3, 1.00000000000000000000e+02) (3, 3, 1.00000000000000000000e+02) (3, 3, 1.00000000000000000000e+02) (3, 3, 1.00000000000000000000e+02) (3, 3, 1.00000000000000000000e+02) (3, 3, 1.00000000000000000000e+02) (3, 3, 1.00000000000000000000e+02) (3, 3, 1.00000000000000000000e+02) (3, 3, 1.00000000000000000000e+02) (0, 3, 1.00000000000000000000e+02) (10, 3, 1.00000000000000000000e+02) (0, 3, 1.00000000000000000000e+02) 
connections (connected_to_neuron, weight)=(0, 7.89162826538085937500e+00) (1, 5.95631122589111328125e+00) (2, -1.17178621292114257812e+01) (0, 1.38184814453125000000e+01) (1, 2.22914409637451171875e+01) (2, 2.55486736297607421875e+01) (0, 1.48632698059082031250e+01) (1, 2.02368183135986328125e+01) (2, 2.61155776977539062500e+01) (0, 1.68193416595458984375e+01) (1, 1.11917352676391601562e+01) (2, 2.45419216156005859375e+00) (0, 6.08047580718994140625e+00) (1, 2.51510500907897949219e+00) (2, -7.20461225509643554688e+00) (0, 9.72615242004394531250e+00) (1, 3.08382987976074218750e+00) (2, -1.06945266723632812500e+01) (0, 1.64055385589599609375e+01) (1, 2.40265693664550781250e+01) (2, 3.05957565307617187500e+01) (0, 1.56153373718261718750e+01) (1, 1.11162405014038085938e+01) (2, -3.13454484939575195312e+00) (0, 9.51767349243164062500e+00) (1, 3.25526595115661621094e+00) (2, -1.06743812561035156250e+01) (3, 1.49343271255493164062e+01) (4, -1.49048018455505371094e+00) (5, -1.26069390773773193359e+00) (6, 4.12909841537475585938e+00) (7, 1.50737571716308593750e+01) (8, 1.43257217407226562500e+01) (9, -2.10103893280029296875e+00) (10, 8.82503747940063476562e-01) (11, 1.79238262176513671875e+01) (12, -3.09863162040710449219e+00) 
