FANN_FLO_2.1
num_layers=3
learning_rate=0.700000
connection_rate=1.000000
network_type=0
learning_momentum=0.000000
training_algorithm=2
train_error_function=1
train_stop_function=1
cascade_output_change_fraction=0.010000
quickprop_decay=-0.000100
quickprop_mu=1.750000
rprop_increase_factor=1.200000
rprop_decrease_factor=0.500000
rprop_delta_min=0.000000
rprop_delta_max=50.000000
rprop_delta_zero=0.100000
cascade_output_stagnation_epochs=12
cascade_candidate_change_fraction=0.010000
cascade_candidate_stagnation_epochs=12
cascade_max_out_epochs=150
cascade_min_out_epochs=50
cascade_max_cand_epochs=150
cascade_min_cand_epochs=50
cascade_num_candidate_groups=2
bit_fail_limit=9.99999977648258209229e-03
cascade_candidate_limit=1.00000000000000000000e+03
cascade_weight_multiplier=4.00000005960464477539e-01
cascade_activation_functions_count=10
cascade_activation_functions=3 5 7 8 10 11 14 15 16 17 
cascade_activation_steepnesses_count=4
cascade_activation_steepnesses=2.50000000000000000000e-01 5.00000000000000000000e-01 7.50000000000000000000e-01 1.00000000000000000000e+00 
layer_sizes=3 13 2 
scale_included=0
neurons (num_inputs, activation_function, activation_steepness)=(0, 0, 0.00000000000000000000e+00) (0, 0, 0.00000000000000000000e+00) (0, 0, 0.00000000000000000000e+00) (3, 3, 5.00000000000000000000e-01) (3, 3, 5.00000000000000000000e-01) (3, 3, 5.00000000000000000000e-01) (3, 3, 5.00000000000000000000e-01) (3, 3, 5.00000000000000000000e-01) (3, 3, 5.00000000000000000000e-01) (3, 3, 5.00000000000000000000e-01) (3, 3, 5.00000000000000000000e-01) (3, 3, 5.00000000000000000000e-01) (3, 3, 5.00000000000000000000e-01) (3, 3, 5.00000000000000000000e-01) (3, 3, 5.00000000000000000000e-01) (0, 3, 5.00000000000000000000e-01) (13, 3, 5.00000000000000000000e-01) (0, 3, 5.00000000000000000000e-01) 
connections (connected_to_neuron, weight)=(0, 7.42500543594360351562e+00) (1, 1.15334787368774414062e+01) (2, 2.29685854911804199219e+00) (0, 9.03268909454345703125e+00) (1, 1.09577131271362304688e+01) (2, -4.09868836402893066406e-01) (0, 5.90456771850585937500e+00) (1, -4.99261587858200073242e-01) (2, -4.42069292068481445312e+00) (0, 5.08355665206909179688e+00) (1, 9.80334091186523437500e+00) (2, 1.14033927917480468750e+01) (0, 5.88546466827392578125e+00) (1, 4.33855152130126953125e+00) (2, 7.81800460815429687500e+00) (0, 5.34688043594360351562e+00) (1, 6.90028905868530273438e-01) (2, -4.89621257781982421875e+00) (0, 8.34947776794433593750e+00) (1, 2.30590891838073730469e+00) (2, 1.15652046203613281250e+01) (0, 4.04487705230712890625e+00) (1, 3.89251375198364257812e+00) (2, 8.08117961883544921875e+00) (0, 4.89665317535400390625e+00) (1, 1.97792708873748779297e+00) (2, -2.65543985366821289062e+00) (0, 9.97903347015380859375e+00) (1, -1.78428247570991516113e-01) (2, -1.15889930725097656250e+01) (0, 1.95204973220825195312e+00) (1, 3.49655914306640625000e+00) (2, -9.77369117736816406250e+00) (0, 1.04800951480865478516e+00) (1, -8.12479019165039062500e+00) (2, 5.99374723434448242188e+00) (3, 3.18085908889770507812e+00) (4, 3.72987651824951171875e+00) (5, -2.45777082443237304688e+00) (6, 4.84495699405670166016e-01) (7, -8.13838899135589599609e-01) (8, -2.39903402328491210938e+00) (9, -1.99487495422363281250e+00) (10, -2.31662321090698242188e+00) (11, 7.56074380874633789062e+00) (12, 3.93037033081054687500e+01) (13, 2.34523773193359375000e+01) (14, -1.16165685653686523438e+00) (15, -5.92672300338745117188e+00) 
