FANN_FLO_2.1
num_layers=3
learning_rate=0.700000
connection_rate=1.000000
network_type=0
learning_momentum=0.000000
training_algorithm=2
train_error_function=1
train_stop_function=1
cascade_output_change_fraction=0.010000
quickprop_decay=-0.000100
quickprop_mu=1.750000
rprop_increase_factor=1.200000
rprop_decrease_factor=0.500000
rprop_delta_min=0.000000
rprop_delta_max=50.000000
rprop_delta_zero=0.100000
cascade_output_stagnation_epochs=12
cascade_candidate_change_fraction=0.010000
cascade_candidate_stagnation_epochs=12
cascade_max_out_epochs=150
cascade_min_out_epochs=50
cascade_max_cand_epochs=150
cascade_min_cand_epochs=50
cascade_num_candidate_groups=2
bit_fail_limit=9.99999977648258209229e-03
cascade_candidate_limit=1.00000000000000000000e+03
cascade_weight_multiplier=4.00000005960464477539e-01
cascade_activation_functions_count=10
cascade_activation_functions=3 5 7 8 10 11 14 15 16 17 
cascade_activation_steepnesses_count=4
cascade_activation_steepnesses=2.50000000000000000000e-01 5.00000000000000000000e-01 7.50000000000000000000e-01 1.00000000000000000000e+00 
layer_sizes=3 13 2 
scale_included=0
neurons (num_inputs, activation_function, activation_steepness)=(0, 0, 0.00000000000000000000e+00) (0, 0, 0.00000000000000000000e+00) (0, 0, 0.00000000000000000000e+00) (3, 3, 5.00000000000000000000e-01) (3, 3, 5.00000000000000000000e-01) (3, 3, 5.00000000000000000000e-01) (3, 3, 5.00000000000000000000e-01) (3, 3, 5.00000000000000000000e-01) (3, 3, 5.00000000000000000000e-01) (3, 3, 5.00000000000000000000e-01) (3, 3, 5.00000000000000000000e-01) (3, 3, 5.00000000000000000000e-01) (3, 3, 5.00000000000000000000e-01) (3, 3, 5.00000000000000000000e-01) (3, 3, 5.00000000000000000000e-01) (0, 3, 5.00000000000000000000e-01) (13, 3, 5.00000000000000000000e-01) (0, 3, 5.00000000000000000000e-01) 
connections (connected_to_neuron, weight)=(0, 4.41470289230346679688e+00) (1, 4.28761148452758789062e+00) (2, -5.37840902805328369141e-01) (0, 8.45985984802246093750e+00) (1, -1.26123499870300292969e+00) (2, -8.57651901245117187500e+00) (0, 1.66526317596435546875e+00) (1, 6.54156160354614257812e+00) (2, -8.39917278289794921875e+00) (0, 7.06430101394653320312e+00) (1, 8.60503959655761718750e+00) (2, 1.64586138725280761719e+00) (0, 3.69249320030212402344e+00) (1, -3.34503173828125000000e-01) (2, -3.40518569946289062500e+00) (0, 4.44152069091796875000e+00) (1, 6.03694820404052734375e+00) (2, -1.28428959846496582031e+00) (0, 2.95476198196411132812e-01) (1, 5.60728073120117187500e+00) (2, -3.70120739936828613281e+00) (0, 9.79772746562957763672e-01) (1, 9.03404331207275390625e+00) (2, 8.09350490570068359375e+00) (0, 9.11275672912597656250e+00) (1, 2.72235703468322753906e+00) (2, -8.87365055084228515625e+00) (0, 3.69214987754821777344e+00) (1, -3.46557736396789550781e-01) (2, -4.19263887405395507812e+00) (0, 2.34348368644714355469e+00) (1, 4.29646110534667968750e+00) (2, 1.14563429355621337891e+00) (0, 6.44340753555297851562e+00) (1, 4.78143739700317382812e+00) (2, 1.30920782089233398438e+01) (3, 2.85855317115783691406e+00) (4, 1.14465684890747070312e+01) (5, 2.46146321296691894531e+00) (6, -5.32897174358367919922e-01) (7, 6.09205484390258789062e+00) (8, 5.14568805694580078125e+00) (9, 5.14941883087158203125e+00) (10, -1.66045022010803222656e+00) (11, -4.59798431396484375000e+00) (12, 4.98148679733276367188e+00) (13, 5.06618547439575195312e+00) (14, -3.73017168045043945312e+00) (15, -1.03655910491943359375e+01) 
