FANN_FLO_2.1
num_layers=3
learning_rate=0.700000
connection_rate=1.000000
network_type=0
learning_momentum=0.000000
training_algorithm=2
train_error_function=1
train_stop_function=1
cascade_output_change_fraction=0.010000
quickprop_decay=-0.000100
quickprop_mu=1.750000
rprop_increase_factor=1.200000
rprop_decrease_factor=0.500000
rprop_delta_min=0.000000
rprop_delta_max=50.000000
rprop_delta_zero=0.100000
cascade_output_stagnation_epochs=12
cascade_candidate_change_fraction=0.010000
cascade_candidate_stagnation_epochs=12
cascade_max_out_epochs=150
cascade_min_out_epochs=50
cascade_max_cand_epochs=150
cascade_min_cand_epochs=50
cascade_num_candidate_groups=2
bit_fail_limit=9.99999977648258209229e-03
cascade_candidate_limit=1.00000000000000000000e+03
cascade_weight_multiplier=4.00000005960464477539e-01
cascade_activation_functions_count=10
cascade_activation_functions=3 5 7 8 10 11 14 15 16 17 
cascade_activation_steepnesses_count=4
cascade_activation_steepnesses=2.50000000000000000000e-01 5.00000000000000000000e-01 7.50000000000000000000e-01 1.00000000000000000000e+00 
layer_sizes=3 10 2 
scale_included=0
neurons (num_inputs, activation_function, activation_steepness)=(0, 0, 0.00000000000000000000e+00) (0, 0, 0.00000000000000000000e+00) (0, 0, 0.00000000000000000000e+00) (3, 3, 1.00000000000000000000e+02) (3, 3, 1.00000000000000000000e+02) (3, 3, 1.00000000000000000000e+02) (3, 3, 1.00000000000000000000e+02) (3, 3, 1.00000000000000000000e+02) (3, 3, 1.00000000000000000000e+02) (3, 3, 1.00000000000000000000e+02) (3, 3, 1.00000000000000000000e+02) (3, 3, 1.00000000000000000000e+02) (0, 3, 1.00000000000000000000e+02) (10, 3, 1.00000000000000000000e+02) (0, 3, 1.00000000000000000000e+02) 
connections (connected_to_neuron, weight)=(0, 1.29966506958007812500e+01) (1, 6.96863698959350585938e+00) (2, 2.51116180419921875000e+01) (0, 1.61162967681884765625e+01) (1, 1.20359651744365692139e-01) (2, -1.36575469970703125000e+01) (0, -1.48399316406250000000e+03) (1, -1.48616052246093750000e+03) (2, -1.47694653320312500000e+03) (0, 1.36466274261474609375e+01) (1, 7.25492358207702636719e-01) (2, -1.21096858978271484375e+01) (0, 2.92827033996582031250e+01) (1, 2.33917675018310546875e+01) (2, 3.08107376098632812500e+00) (0, 1.53351325988769531250e+01) (1, -1.74389255046844482422e+00) (2, -1.13797225952148437500e+01) (0, 5.25015068054199218750e+00) (1, 9.17311096191406250000e+00) (2, 3.09640750885009765625e+01) (0, 1.90107460021972656250e+01) (1, 1.87554111480712890625e+01) (2, -3.15538215637207031250e+01) (0, 1.63439865112304687500e+01) (1, -6.31881117820739746094e-01) (2, -1.31943464279174804688e+01) (3, -6.82024419307708740234e-01) (4, 2.68270320892333984375e+01) (5, -8.74692916870117187500e-01) (6, 2.19133720397949218750e+01) (7, 2.20757365226745605469e+00) (8, 2.26813125610351562500e+01) (9, -1.29823720455169677734e+00) (10, 3.11250472441315650940e-03) (11, 2.49624938964843750000e+01) (12, -4.74154090881347656250e+00) 
