FANN_FLO_2.1
num_layers=3
learning_rate=0.700000
connection_rate=1.000000
network_type=0
learning_momentum=0.000000
training_algorithm=2
train_error_function=1
train_stop_function=1
cascade_output_change_fraction=0.010000
quickprop_decay=-0.000100
quickprop_mu=1.750000
rprop_increase_factor=1.200000
rprop_decrease_factor=0.500000
rprop_delta_min=0.000000
rprop_delta_max=50.000000
rprop_delta_zero=0.100000
cascade_output_stagnation_epochs=12
cascade_candidate_change_fraction=0.010000
cascade_candidate_stagnation_epochs=12
cascade_max_out_epochs=150
cascade_min_out_epochs=50
cascade_max_cand_epochs=150
cascade_min_cand_epochs=50
cascade_num_candidate_groups=2
bit_fail_limit=9.99999977648258209229e-03
cascade_candidate_limit=1.00000000000000000000e+03
cascade_weight_multiplier=4.00000005960464477539e-01
cascade_activation_functions_count=10
cascade_activation_functions=3 5 7 8 10 11 14 15 16 17 
cascade_activation_steepnesses_count=4
cascade_activation_steepnesses=2.50000000000000000000e-01 5.00000000000000000000e-01 7.50000000000000000000e-01 1.00000000000000000000e+00 
layer_sizes=3 10 2 
scale_included=0
neurons (num_inputs, activation_function, activation_steepness)=(0, 0, 0.00000000000000000000e+00) (0, 0, 0.00000000000000000000e+00) (0, 0, 0.00000000000000000000e+00) (3, 3, 1.00000000000000000000e+02) (3, 3, 1.00000000000000000000e+02) (3, 3, 1.00000000000000000000e+02) (3, 3, 1.00000000000000000000e+02) (3, 3, 1.00000000000000000000e+02) (3, 3, 1.00000000000000000000e+02) (3, 3, 1.00000000000000000000e+02) (3, 3, 1.00000000000000000000e+02) (3, 3, 1.00000000000000000000e+02) (0, 3, 1.00000000000000000000e+02) (10, 3, 1.00000000000000000000e+02) (0, 3, 1.00000000000000000000e+02) 
connections (connected_to_neuron, weight)=(0, 7.52145767211914062500e+00) (1, 6.20838022232055664062e+00) (2, 9.85627710819244384766e-01) (0, 2.87333431243896484375e+01) (1, 3.33200492858886718750e+01) (2, 2.23744449615478515625e+01) (0, 4.14216947555541992188e+00) (1, 3.48826646804809570312e+00) (2, -6.38244915008544921875e+00) (0, 1.87433278560638427734e+00) (1, 4.27880716323852539062e+00) (2, 1.39679002761840820312e+00) (0, 7.01547002792358398438e+00) (1, 4.27686548233032226562e+00) (2, -7.27717590332031250000e+00) (0, 6.60214424133300781250e+00) (1, 1.68399679660797119141e+00) (2, -8.97463989257812500000e+00) (0, 2.82855129241943359375e+01) (1, 3.39227142333984375000e+01) (2, 2.27693481445312500000e+01) (0, 5.86342763900756835938e+00) (1, 5.93255901336669921875e+00) (2, 4.62442588806152343750e+00) (0, 2.57372426986694335938e+00) (1, 1.72968149185180664062e+00) (2, 3.14365848898887634277e-02) (3, 3.91325783729553222656e+00) (4, -1.10784029960632324219e+00) (5, 1.51610517501831054688e+01) (6, 1.03954362869262695312e+00) (7, 4.10521961748600006104e-03) (8, 1.03393650054931640625e+00) (9, -1.37163281440734863281e+00) (10, 2.17768454551696777344e+00) (11, 8.29241037368774414062e-01) (12, -5.98578786849975585938e+00) 
