FANN_FLO_2.1
num_layers=3
learning_rate=0.700000
connection_rate=1.000000
network_type=0
learning_momentum=0.000000
training_algorithm=2
train_error_function=1
train_stop_function=1
cascade_output_change_fraction=0.010000
quickprop_decay=-0.000100
quickprop_mu=1.750000
rprop_increase_factor=1.200000
rprop_decrease_factor=0.500000
rprop_delta_min=0.000000
rprop_delta_max=50.000000
rprop_delta_zero=0.100000
cascade_output_stagnation_epochs=12
cascade_candidate_change_fraction=0.010000
cascade_candidate_stagnation_epochs=12
cascade_max_out_epochs=150
cascade_min_out_epochs=50
cascade_max_cand_epochs=150
cascade_min_cand_epochs=50
cascade_num_candidate_groups=2
bit_fail_limit=9.99999977648258209229e-03
cascade_candidate_limit=1.00000000000000000000e+03
cascade_weight_multiplier=4.00000005960464477539e-01
cascade_activation_functions_count=10
cascade_activation_functions=3 5 7 8 10 11 14 15 16 17 
cascade_activation_steepnesses_count=4
cascade_activation_steepnesses=2.50000000000000000000e-01 5.00000000000000000000e-01 7.50000000000000000000e-01 1.00000000000000000000e+00 
layer_sizes=3 10 2 
scale_included=0
neurons (num_inputs, activation_function, activation_steepness)=(0, 0, 0.00000000000000000000e+00) (0, 0, 0.00000000000000000000e+00) (0, 0, 0.00000000000000000000e+00) (3, 3, 1.00000000000000000000e+02) (3, 3, 1.00000000000000000000e+02) (3, 3, 1.00000000000000000000e+02) (3, 3, 1.00000000000000000000e+02) (3, 3, 1.00000000000000000000e+02) (3, 3, 1.00000000000000000000e+02) (3, 3, 1.00000000000000000000e+02) (3, 3, 1.00000000000000000000e+02) (3, 3, 1.00000000000000000000e+02) (0, 3, 1.00000000000000000000e+02) (10, 3, 1.00000000000000000000e+02) (0, 3, 1.00000000000000000000e+02) 
connections (connected_to_neuron, weight)=(0, 9.74079668521881103516e-01) (1, 2.87275862693786621094e+00) (2, -3.23622608184814453125e+00) (0, 2.49393806457519531250e+01) (1, 2.78395881652832031250e+01) (2, 2.58681354522705078125e+01) (0, 5.21232461929321289062e+00) (1, 4.97869348526000976562e+00) (2, -6.63861513137817382812e+00) (0, 3.09914135932922363281e+00) (1, 2.50332880020141601562e+00) (2, -4.82462596893310546875e+00) (0, 6.74445009231567382812e+00) (1, 2.53483700752258300781e+00) (2, -1.00372278690338134766e+00) (0, 2.29652714729309082031e+00) (1, 5.94743788242340087891e-01) (2, -2.04907727241516113281e+00) (0, 2.63545818328857421875e+01) (1, 2.50944213867187500000e+01) (2, 2.70193443298339843750e+01) (0, 8.81448626518249511719e-01) (1, 6.17815017700195312500e-01) (2, -3.35493731498718261719e+00) (0, -1.98896431922912597656e+00) (1, 8.76237571239471435547e-01) (2, 6.61194920539855957031e-01) (3, 2.56125831604003906250e+01) (4, -1.31259572505950927734e+00) (5, 1.85161898843944072723e-03) (6, 2.75861225128173828125e+01) (7, 5.66875398159027099609e-01) (8, 2.95228371396660804749e-03) (9, -1.03349566459655761719e+00) (10, -1.34665158111602067947e-03) (11, -7.78648303821682929993e-04) (12, -8.24324190616607666016e-01) 
