FANN_FLO_2.1
num_layers=3
learning_rate=0.700000
connection_rate=1.000000
network_type=0
learning_momentum=0.000000
training_algorithm=2
train_error_function=1
train_stop_function=1
cascade_output_change_fraction=0.010000
quickprop_decay=-0.000100
quickprop_mu=1.750000
rprop_increase_factor=1.200000
rprop_decrease_factor=0.500000
rprop_delta_min=0.000000
rprop_delta_max=50.000000
rprop_delta_zero=0.100000
cascade_output_stagnation_epochs=12
cascade_candidate_change_fraction=0.010000
cascade_candidate_stagnation_epochs=12
cascade_max_out_epochs=150
cascade_min_out_epochs=50
cascade_max_cand_epochs=150
cascade_min_cand_epochs=50
cascade_num_candidate_groups=2
bit_fail_limit=9.99999977648258209229e-03
cascade_candidate_limit=1.00000000000000000000e+03
cascade_weight_multiplier=4.00000005960464477539e-01
cascade_activation_functions_count=10
cascade_activation_functions=3 5 7 8 10 11 14 15 16 17 
cascade_activation_steepnesses_count=4
cascade_activation_steepnesses=2.50000000000000000000e-01 5.00000000000000000000e-01 7.50000000000000000000e-01 1.00000000000000000000e+00 
layer_sizes=3 10 2 
scale_included=0
neurons (num_inputs, activation_function, activation_steepness)=(0, 0, 0.00000000000000000000e+00) (0, 0, 0.00000000000000000000e+00) (0, 0, 0.00000000000000000000e+00) (3, 3, 1.00000000000000000000e+02) (3, 3, 1.00000000000000000000e+02) (3, 3, 1.00000000000000000000e+02) (3, 3, 1.00000000000000000000e+02) (3, 3, 1.00000000000000000000e+02) (3, 3, 1.00000000000000000000e+02) (3, 3, 1.00000000000000000000e+02) (3, 3, 1.00000000000000000000e+02) (3, 3, 1.00000000000000000000e+02) (0, 3, 1.00000000000000000000e+02) (10, 3, 1.00000000000000000000e+02) (0, 3, 1.00000000000000000000e+02) 
connections (connected_to_neuron, weight)=(0, 8.59213829040527343750e+00) (1, 1.02145423889160156250e+01) (2, -3.66472506523132324219e+00) (0, 1.03502721786499023438e+01) (1, 1.00119810104370117188e+01) (2, -4.62742614746093750000e+00) (0, 2.39833011627197265625e+01) (1, 2.81170463562011718750e+01) (2, 2.90445041656494140625e+01) (0, 2.30797882080078125000e+01) (1, 2.66944599151611328125e+01) (2, 2.27478923797607421875e+01) (0, 8.28406810760498046875e+00) (1, 2.58779430389404296875e+00) (2, 4.08270549774169921875e+00) (0, 2.17344188690185546875e+01) (1, 2.48155975341796875000e+01) (2, 2.48461570739746093750e+01) (0, 5.06990814208984375000e+00) (1, 3.88484716415405273438e+00) (2, -7.81909132003784179688e+00) (0, 6.41410779953002929688e+00) (1, 8.10990810394287109375e+00) (2, 3.65940737724304199219e+00) (0, 2.11094150543212890625e+01) (1, 2.93997840881347656250e+01) (2, 2.28397655487060546875e+01) (3, 4.50499355792999267578e-01) (4, 3.86401200294494628906e+00) (5, -2.45308876037597656250e+00) (6, -3.49501824378967285156e+00) (7, 1.34334826469421386719e+00) (8, -2.47609233856201171875e+00) (9, 2.41754131317138671875e+01) (10, 6.20641946792602539062e-01) (11, -2.70319986343383789062e+00) (12, 3.48093295097351074219e+00) 
