FANN_FLO_2.1
num_layers=3
learning_rate=0.700000
connection_rate=1.000000
network_type=0
learning_momentum=0.000000
training_algorithm=2
train_error_function=1
train_stop_function=1
cascade_output_change_fraction=0.010000
quickprop_decay=-0.000100
quickprop_mu=1.750000
rprop_increase_factor=1.200000
rprop_decrease_factor=0.500000
rprop_delta_min=0.000000
rprop_delta_max=50.000000
rprop_delta_zero=0.100000
cascade_output_stagnation_epochs=12
cascade_candidate_change_fraction=0.010000
cascade_candidate_stagnation_epochs=12
cascade_max_out_epochs=150
cascade_min_out_epochs=50
cascade_max_cand_epochs=150
cascade_min_cand_epochs=50
cascade_num_candidate_groups=2
bit_fail_limit=9.99999977648258209229e-03
cascade_candidate_limit=1.00000000000000000000e+03
cascade_weight_multiplier=4.00000005960464477539e-01
cascade_activation_functions_count=10
cascade_activation_functions=3 5 7 8 10 11 14 15 16 17 
cascade_activation_steepnesses_count=4
cascade_activation_steepnesses=2.50000000000000000000e-01 5.00000000000000000000e-01 7.50000000000000000000e-01 1.00000000000000000000e+00 
layer_sizes=3 10 2 
scale_included=0
neurons (num_inputs, activation_function, activation_steepness)=(0, 0, 0.00000000000000000000e+00) (0, 0, 0.00000000000000000000e+00) (0, 0, 0.00000000000000000000e+00) (3, 3, 1.00000000000000000000e+02) (3, 3, 1.00000000000000000000e+02) (3, 3, 1.00000000000000000000e+02) (3, 3, 1.00000000000000000000e+02) (3, 3, 1.00000000000000000000e+02) (3, 3, 1.00000000000000000000e+02) (3, 3, 1.00000000000000000000e+02) (3, 3, 1.00000000000000000000e+02) (3, 3, 1.00000000000000000000e+02) (0, 3, 1.00000000000000000000e+02) (10, 3, 1.00000000000000000000e+02) (0, 3, 1.00000000000000000000e+02) 
connections (connected_to_neuron, weight)=(0, 1.83595192432403564453e+00) (1, 3.75452995300292968750e+00) (2, -4.18986034393310546875e+00) (0, 1.14145622253417968750e+01) (1, 4.28893041610717773438e+00) (2, -1.13064460754394531250e+01) (0, 9.26877212524414062500e+00) (1, 6.96845817565917968750e+00) (2, 1.04570567607879638672e+00) (0, 2.45988826751708984375e+01) (1, 2.37398281097412109375e+01) (2, 3.33647003173828125000e+01) (0, 6.10555744171142578125e+00) (1, 4.93144035339355468750e+00) (2, -8.93758869171142578125e+00) (0, 3.73949909210205078125e+00) (1, 1.43089818954467773438e+00) (2, -4.57185935974121093750e+00) (0, 7.22266864776611328125e+00) (1, 3.03831315040588378906e+00) (2, -5.36040544509887695312e+00) (0, 3.55516791343688964844e+00) (1, 3.86590528488159179688e+00) (2, -5.52154779434204101562e+00) (0, 9.90069389343261718750e+00) (1, 8.06116199493408203125e+00) (2, -1.32139806747436523438e+01) (3, -2.82162032090127468109e-03) (4, -2.52261695861816406250e+01) (5, 1.95807784795761108398e-01) (6, -4.66791534423828125000e+00) (7, 3.22636077180504798889e-03) (8, 2.26561260223388671875e+00) (9, 3.55629777908325195312e+00) (10, 1.84398727416992187500e+01) (11, 6.78992938995361328125e+00) (12, 7.71337091922760009766e-01) 
