FANN_FLO_2.1
num_layers=3
learning_rate=0.700000
connection_rate=1.000000
network_type=0
learning_momentum=0.000000
training_algorithm=2
train_error_function=1
train_stop_function=1
cascade_output_change_fraction=0.010000
quickprop_decay=-0.000100
quickprop_mu=1.750000
rprop_increase_factor=1.200000
rprop_decrease_factor=0.500000
rprop_delta_min=0.000000
rprop_delta_max=50.000000
rprop_delta_zero=0.100000
cascade_output_stagnation_epochs=12
cascade_candidate_change_fraction=0.010000
cascade_candidate_stagnation_epochs=12
cascade_max_out_epochs=150
cascade_min_out_epochs=50
cascade_max_cand_epochs=150
cascade_min_cand_epochs=50
cascade_num_candidate_groups=2
bit_fail_limit=9.99999977648258209229e-03
cascade_candidate_limit=1.00000000000000000000e+03
cascade_weight_multiplier=4.00000005960464477539e-01
cascade_activation_functions_count=10
cascade_activation_functions=3 5 7 8 10 11 14 15 16 17 
cascade_activation_steepnesses_count=4
cascade_activation_steepnesses=2.50000000000000000000e-01 5.00000000000000000000e-01 7.50000000000000000000e-01 1.00000000000000000000e+00 
layer_sizes=3 13 2 
scale_included=0
neurons (num_inputs, activation_function, activation_steepness)=(0, 0, 0.00000000000000000000e+00) (0, 0, 0.00000000000000000000e+00) (0, 0, 0.00000000000000000000e+00) (3, 3, 5.00000000000000000000e-01) (3, 3, 5.00000000000000000000e-01) (3, 3, 5.00000000000000000000e-01) (3, 3, 5.00000000000000000000e-01) (3, 3, 5.00000000000000000000e-01) (3, 3, 5.00000000000000000000e-01) (3, 3, 5.00000000000000000000e-01) (3, 3, 5.00000000000000000000e-01) (3, 3, 5.00000000000000000000e-01) (3, 3, 5.00000000000000000000e-01) (3, 3, 5.00000000000000000000e-01) (3, 3, 5.00000000000000000000e-01) (0, 3, 5.00000000000000000000e-01) (13, 3, 5.00000000000000000000e-01) (0, 3, 5.00000000000000000000e-01) 
connections (connected_to_neuron, weight)=(0, 9.46781158447265625000e+00) (1, 8.41317939758300781250e+00) (2, 7.27923154830932617188e+00) (0, 5.75543832778930664062e+00) (1, 4.66387510299682617188e+00) (2, 4.11768770217895507812e+00) (0, -3.86629164218902587891e-01) (1, 8.93949985504150390625e-01) (2, 1.71771094202995300293e-01) (0, 1.68006086349487304688e+00) (1, 5.41023445129394531250e+00) (2, -2.77193337678909301758e-01) (0, 2.90423941612243652344e+00) (1, 2.21696472167968750000e+00) (2, -1.04897618293762207031e+00) (0, 5.88470792770385742188e+00) (1, 2.25695776939392089844e+00) (2, -9.09864711761474609375e+00) (0, -1.06323957443237304688e-01) (1, 1.84373044967651367188e+00) (2, -2.03938722610473632812e+00) (0, 9.10187435150146484375e+00) (1, 1.20366740226745605469e+00) (2, -4.29183387756347656250e+00) (0, -1.01189553737640380859e+00) (1, -1.41100728511810302734e+00) (2, 9.80239689350128173828e-01) (0, 1.25353360176086425781e+00) (1, 8.29766941070556640625e+00) (2, -3.30855512619018554688e+00) (0, 1.03166322708129882812e+01) (1, 7.14065504074096679688e+00) (2, 8.24172306060791015625e+00) (0, 2.82501792907714843750e+00) (1, 3.54535651206970214844e+00) (2, -7.89083909988403320312e+00) (3, -5.66244661808013916016e-01) (4, 1.27322569489479064941e-01) (5, 2.04516029357910156250e+00) (6, -2.25339484214782714844e+00) (7, 3.88409471511840820312e+00) (8, 1.20065107345581054688e+01) (9, 5.62898349761962890625e+00) (10, 1.57386827468872070312e+00) (11, 1.02862081527709960938e+01) (12, -1.76629495620727539062e+00) (13, -2.85822057723999023438e+00) (14, 1.02007551193237304688e+01) (15, -3.96591877937316894531e+00) 
