FANN_FLO_2.1
num_layers=3
learning_rate=0.700000
connection_rate=1.000000
network_type=0
learning_momentum=0.000000
training_algorithm=2
train_error_function=1
train_stop_function=1
cascade_output_change_fraction=0.010000
quickprop_decay=-0.000100
quickprop_mu=1.750000
rprop_increase_factor=1.200000
rprop_decrease_factor=0.500000
rprop_delta_min=0.000000
rprop_delta_max=50.000000
rprop_delta_zero=0.100000
cascade_output_stagnation_epochs=12
cascade_candidate_change_fraction=0.010000
cascade_candidate_stagnation_epochs=12
cascade_max_out_epochs=150
cascade_min_out_epochs=50
cascade_max_cand_epochs=150
cascade_min_cand_epochs=50
cascade_num_candidate_groups=2
bit_fail_limit=9.99999977648258209229e-03
cascade_candidate_limit=1.00000000000000000000e+03
cascade_weight_multiplier=4.00000005960464477539e-01
cascade_activation_functions_count=10
cascade_activation_functions=3 5 7 8 10 11 14 15 16 17 
cascade_activation_steepnesses_count=4
cascade_activation_steepnesses=2.50000000000000000000e-01 5.00000000000000000000e-01 7.50000000000000000000e-01 1.00000000000000000000e+00 
layer_sizes=3 9 2 
scale_included=0
neurons (num_inputs, activation_function, activation_steepness)=(0, 0, 0.00000000000000000000e+00) (0, 0, 0.00000000000000000000e+00) (0, 0, 0.00000000000000000000e+00) (3, 3, 1.00000000000000000000e+02) (3, 3, 1.00000000000000000000e+02) (3, 3, 1.00000000000000000000e+02) (3, 3, 1.00000000000000000000e+02) (3, 3, 1.00000000000000000000e+02) (3, 3, 1.00000000000000000000e+02) (3, 3, 1.00000000000000000000e+02) (3, 3, 1.00000000000000000000e+02) (0, 3, 1.00000000000000000000e+02) (9, 3, 1.00000000000000000000e+02) (0, 3, 1.00000000000000000000e+02) 
connections (connected_to_neuron, weight)=(0, 4.21099319458007812500e+01) (1, 9.35882282257080078125e+00) (2, 5.04039108753204345703e-01) (0, -1.49194360351562500000e+03) (1, -1.48600805664062500000e+03) (2, -1.48025158691406250000e+03) (0, 3.01766276359558105469e+00) (1, 2.07443695068359375000e+01) (2, 2.42417449951171875000e+01) (0, -7.55228996276855468750e+00) (1, 2.13677997589111328125e+01) (2, 3.15699367523193359375e+01) (0, 4.32516365051269531250e+01) (1, 1.01009244918823242188e+01) (2, 2.80202507972717285156e+00) (0, 2.64673500061035156250e+01) (1, 9.62335586547851562500e+00) (2, -1.90289759635925292969e+00) (0, -3.06198444366455078125e+01) (1, 7.43303108215332031250e+00) (2, 1.78701572418212890625e+01) (0, 1.24988794326782226562e+00) (1, 1.97938137054443359375e+01) (2, 2.62417659759521484375e+01) (3, 6.58034205436706542969e-01) (4, -3.65692866034805774689e-03) (5, -4.69409286975860595703e-01) (6, -2.11052227020263671875e+00) (7, 3.07967376708984375000e+00) (8, 4.46365177631378173828e-01) (9, -8.03667586296796798706e-03) (10, -1.54234600067138671875e+00) (11, -4.61892671883106231689e-02) 
