FANN_FLO_2.1
num_layers=3
learning_rate=0.700000
connection_rate=1.000000
network_type=0
learning_momentum=0.000000
training_algorithm=2
train_error_function=1
train_stop_function=1
cascade_output_change_fraction=0.010000
quickprop_decay=-0.000100
quickprop_mu=1.750000
rprop_increase_factor=1.200000
rprop_decrease_factor=0.500000
rprop_delta_min=0.000000
rprop_delta_max=50.000000
rprop_delta_zero=0.100000
cascade_output_stagnation_epochs=12
cascade_candidate_change_fraction=0.010000
cascade_candidate_stagnation_epochs=12
cascade_max_out_epochs=150
cascade_min_out_epochs=50
cascade_max_cand_epochs=150
cascade_min_cand_epochs=50
cascade_num_candidate_groups=2
bit_fail_limit=9.99999977648258209229e-03
cascade_candidate_limit=1.00000000000000000000e+03
cascade_weight_multiplier=4.00000005960464477539e-01
cascade_activation_functions_count=10
cascade_activation_functions=3 5 7 8 10 11 14 15 16 17 
cascade_activation_steepnesses_count=4
cascade_activation_steepnesses=2.50000000000000000000e-01 5.00000000000000000000e-01 7.50000000000000000000e-01 1.00000000000000000000e+00 
layer_sizes=3 13 2 
scale_included=0
neurons (num_inputs, activation_function, activation_steepness)=(0, 0, 0.00000000000000000000e+00) (0, 0, 0.00000000000000000000e+00) (0, 0, 0.00000000000000000000e+00) (3, 3, 5.00000000000000000000e-01) (3, 3, 5.00000000000000000000e-01) (3, 3, 5.00000000000000000000e-01) (3, 3, 5.00000000000000000000e-01) (3, 3, 5.00000000000000000000e-01) (3, 3, 5.00000000000000000000e-01) (3, 3, 5.00000000000000000000e-01) (3, 3, 5.00000000000000000000e-01) (3, 3, 5.00000000000000000000e-01) (3, 3, 5.00000000000000000000e-01) (3, 3, 5.00000000000000000000e-01) (3, 3, 5.00000000000000000000e-01) (0, 3, 5.00000000000000000000e-01) (13, 3, 5.00000000000000000000e-01) (0, 3, 5.00000000000000000000e-01) 
connections (connected_to_neuron, weight)=(0, 3.86378169059753417969e+00) (1, 6.74715948104858398438e+00) (2, -1.08698043823242187500e+01) (0, 8.92366528511047363281e-01) (1, -3.65226316452026367188e+00) (2, -1.01575517654418945312e+00) (0, -2.03687882423400878906e+00) (1, 7.94632339477539062500e+00) (2, -4.50277614593505859375e+00) (0, -7.40766823291778564453e-01) (1, -1.79073655605316162109e+00) (2, 1.15619587898254394531e+00) (0, 2.64449729919433593750e+01) (1, 4.52595806121826171875e+00) (2, -1.42964525222778320312e+01) (0, -5.29416131973266601562e+00) (1, -6.83868825435638427734e-01) (2, 4.96934413909912109375e+00) (0, 9.84732913970947265625e+00) (1, 8.52077960968017578125e+00) (2, 1.27090406417846679688e+01) (0, 2.99505496025085449219e+00) (1, 2.92940187454223632812e+00) (2, -4.25266695022583007812e+00) (0, 8.18405723571777343750e+00) (1, -3.46791577339172363281e+00) (2, -2.07026076316833496094e+00) (0, 5.90062284469604492188e+00) (1, 6.43880605697631835938e+00) (2, -2.60651969909667968750e+00) (0, -3.37359476089477539062e+00) (1, 2.85318589210510253906e+00) (2, -2.56832289695739746094e+00) (0, 1.37526154518127441406e+00) (1, 2.68608331680297851562e+00) (2, -2.38269639015197753906e+00) (3, 1.52693777084350585938e+01) (4, 7.10456609725952148438e+00) (5, 4.60889816284179687500e+00) (6, 6.09134769439697265625e+00) (7, -3.95982027053833007812e+00) (8, 4.46285533905029296875e+00) (9, -2.52226853370666503906e+00) (10, -2.67527508735656738281e+00) (11, 7.67116403579711914062e+00) (12, 1.23174381256103515625e+00) (13, 3.47636081278324127197e-02) (14, -5.03415465354919433594e-01) (15, -5.95682954788208007812e+00) 
