FANN_FLO_2.1
num_layers=3
learning_rate=0.700000
connection_rate=1.000000
network_type=0
learning_momentum=0.000000
training_algorithm=2
train_error_function=1
train_stop_function=1
cascade_output_change_fraction=0.010000
quickprop_decay=-0.000100
quickprop_mu=1.750000
rprop_increase_factor=1.200000
rprop_decrease_factor=0.500000
rprop_delta_min=0.000000
rprop_delta_max=50.000000
rprop_delta_zero=0.100000
cascade_output_stagnation_epochs=12
cascade_candidate_change_fraction=0.010000
cascade_candidate_stagnation_epochs=12
cascade_max_out_epochs=150
cascade_min_out_epochs=50
cascade_max_cand_epochs=150
cascade_min_cand_epochs=50
cascade_num_candidate_groups=2
bit_fail_limit=9.99999977648258209229e-03
cascade_candidate_limit=1.00000000000000000000e+03
cascade_weight_multiplier=4.00000005960464477539e-01
cascade_activation_functions_count=10
cascade_activation_functions=3 5 7 8 10 11 14 15 16 17 
cascade_activation_steepnesses_count=4
cascade_activation_steepnesses=2.50000000000000000000e-01 5.00000000000000000000e-01 7.50000000000000000000e-01 1.00000000000000000000e+00 
layer_sizes=3 10 2 
scale_included=0
neurons (num_inputs, activation_function, activation_steepness)=(0, 0, 0.00000000000000000000e+00) (0, 0, 0.00000000000000000000e+00) (0, 0, 0.00000000000000000000e+00) (3, 3, 1.00000000000000000000e+02) (3, 3, 1.00000000000000000000e+02) (3, 3, 1.00000000000000000000e+02) (3, 3, 1.00000000000000000000e+02) (3, 3, 1.00000000000000000000e+02) (3, 3, 1.00000000000000000000e+02) (3, 3, 1.00000000000000000000e+02) (3, 3, 1.00000000000000000000e+02) (3, 3, 1.00000000000000000000e+02) (0, 3, 1.00000000000000000000e+02) (10, 3, 1.00000000000000000000e+02) (0, 3, 1.00000000000000000000e+02) 
connections (connected_to_neuron, weight)=(0, 1.07809534072875976562e+01) (1, 1.84433670043945312500e+01) (2, 3.11204872131347656250e+01) (0, 9.91413307189941406250e+00) (1, 1.80366592407226562500e+01) (2, 2.80586929321289062500e+01) (0, 2.05440330505371093750e+01) (1, 1.36714258193969726562e+01) (2, -2.66629958152770996094e+00) (0, 1.48795690536499023438e+01) (1, 1.01034057140350341797e+00) (2, -1.36772279739379882812e+01) (0, -1.43082678222656250000e+03) (1, -1.26590673828125000000e+03) (2, -1.05819594860076904297e+00) (0, 1.55359668731689453125e+01) (1, 3.18581724166870117188e+00) (2, -1.57928581237792968750e+01) (0, -1.48170300292968750000e+03) (1, -1.48701477050781250000e+03) (2, -1.48178601074218750000e+03) (0, -3.89243125915527343750e+00) (1, 8.36104393005371093750e-01) (2, 1.69776570796966552734e+00) (0, 9.92433261871337890625e+00) (1, 1.79910659790039062500e+01) (2, 2.54440631866455078125e+01) (3, -2.43511104583740234375e+00) (4, -2.37176966667175292969e+00) (5, 1.54429769515991210938e+00) (6, 2.89884834289550781250e+01) (7, -5.78176796436309814453e-01) (8, 3.93715553283691406250e+01) (9, -5.30335724353790283203e-01) (10, -3.49528854712843894958e-03) (11, -1.00850093364715576172e+00) (12, 8.86501431465148925781e-01) 
