FANN_FLO_2.1
num_layers=3
learning_rate=0.700000
connection_rate=1.000000
network_type=0
learning_momentum=0.000000
training_algorithm=2
train_error_function=1
train_stop_function=1
cascade_output_change_fraction=0.010000
quickprop_decay=-0.000100
quickprop_mu=1.750000
rprop_increase_factor=1.200000
rprop_decrease_factor=0.500000
rprop_delta_min=0.000000
rprop_delta_max=50.000000
rprop_delta_zero=0.100000
cascade_output_stagnation_epochs=12
cascade_candidate_change_fraction=0.010000
cascade_candidate_stagnation_epochs=12
cascade_max_out_epochs=150
cascade_min_out_epochs=50
cascade_max_cand_epochs=150
cascade_min_cand_epochs=50
cascade_num_candidate_groups=2
bit_fail_limit=9.99999977648258209229e-03
cascade_candidate_limit=1.00000000000000000000e+03
cascade_weight_multiplier=4.00000005960464477539e-01
cascade_activation_functions_count=10
cascade_activation_functions=3 5 7 8 10 11 14 15 16 17 
cascade_activation_steepnesses_count=4
cascade_activation_steepnesses=2.50000000000000000000e-01 5.00000000000000000000e-01 7.50000000000000000000e-01 1.00000000000000000000e+00 
layer_sizes=3 13 2 
scale_included=0
neurons (num_inputs, activation_function, activation_steepness)=(0, 0, 0.00000000000000000000e+00) (0, 0, 0.00000000000000000000e+00) (0, 0, 0.00000000000000000000e+00) (3, 3, 5.00000000000000000000e-01) (3, 3, 5.00000000000000000000e-01) (3, 3, 5.00000000000000000000e-01) (3, 3, 5.00000000000000000000e-01) (3, 3, 5.00000000000000000000e-01) (3, 3, 5.00000000000000000000e-01) (3, 3, 5.00000000000000000000e-01) (3, 3, 5.00000000000000000000e-01) (3, 3, 5.00000000000000000000e-01) (3, 3, 5.00000000000000000000e-01) (3, 3, 5.00000000000000000000e-01) (3, 3, 5.00000000000000000000e-01) (0, 3, 5.00000000000000000000e-01) (13, 3, 5.00000000000000000000e-01) (0, 3, 5.00000000000000000000e-01) 
connections (connected_to_neuron, weight)=(0, 3.92468643188476562500e+00) (1, 3.87717771530151367188e+00) (2, -1.56011378765106201172e+00) (0, 5.98699426651000976562e+00) (1, -5.26717066764831542969e-01) (2, -3.23397350311279296875e+00) (0, 1.10343608856201171875e+01) (1, 4.62699842453002929688e+00) (2, 7.47832775115966796875e+00) (0, 7.80184173583984375000e+00) (1, 2.48727488517761230469e+00) (2, 1.24333190917968750000e+01) (0, 5.14702606201171875000e+00) (1, 3.49123477935791015625e+00) (2, -3.77231764793395996094e+00) (0, 2.48832654953002929688e+00) (1, -5.04185259342193603516e-01) (2, -3.80532884597778320312e+00) (0, 8.22542572021484375000e+00) (1, 6.28865838050842285156e-01) (2, -9.76883602142333984375e+00) (0, 7.34426438808441162109e-01) (1, 1.92240059375762939453e+00) (2, 5.63316631317138671875e+00) (0, 9.42546463012695312500e+00) (1, 1.18845872879028320312e+01) (2, 1.21184921264648437500e+01) (0, -2.59513211250305175781e+00) (1, 1.65909886360168457031e+00) (2, 1.32243573665618896484e-01) (0, 3.42301654815673828125e+00) (1, -1.02941727638244628906e+00) (2, 2.76593542098999023438e+00) (0, 7.20171976089477539062e+00) (1, 4.68060445785522460938e+00) (2, 1.23024826049804687500e+01) (3, 7.78780317306518554688e+00) (4, -1.74747252464294433594e+00) (5, -3.16860032081604003906e+00) (6, -1.98055481910705566406e+00) (7, 4.67157888412475585938e+00) (8, 4.03085947036743164062e+00) (9, 1.35312929153442382812e+01) (10, -1.66659772396087646484e+00) (11, -4.16884374618530273438e+00) (12, 4.32927846908569335938e+00) (13, 3.43749284744262695312e-01) (14, -2.45025038719177246094e+00) (15, 9.50488805770874023438e-01) 
