FANN_FLO_2.1
num_layers=3
learning_rate=0.700000
connection_rate=1.000000
network_type=0
learning_momentum=0.000000
training_algorithm=2
train_error_function=1
train_stop_function=1
cascade_output_change_fraction=0.010000
quickprop_decay=-0.000100
quickprop_mu=1.750000
rprop_increase_factor=1.200000
rprop_decrease_factor=0.500000
rprop_delta_min=0.000000
rprop_delta_max=50.000000
rprop_delta_zero=0.100000
cascade_output_stagnation_epochs=12
cascade_candidate_change_fraction=0.010000
cascade_candidate_stagnation_epochs=12
cascade_max_out_epochs=150
cascade_min_out_epochs=50
cascade_max_cand_epochs=150
cascade_min_cand_epochs=50
cascade_num_candidate_groups=2
bit_fail_limit=9.99999977648258209229e-03
cascade_candidate_limit=1.00000000000000000000e+03
cascade_weight_multiplier=4.00000005960464477539e-01
cascade_activation_functions_count=10
cascade_activation_functions=3 5 7 8 10 11 14 15 16 17 
cascade_activation_steepnesses_count=4
cascade_activation_steepnesses=2.50000000000000000000e-01 5.00000000000000000000e-01 7.50000000000000000000e-01 1.00000000000000000000e+00 
layer_sizes=3 10 2 
scale_included=0
neurons (num_inputs, activation_function, activation_steepness)=(0, 0, 0.00000000000000000000e+00) (0, 0, 0.00000000000000000000e+00) (0, 0, 0.00000000000000000000e+00) (3, 3, 1.00000000000000000000e+02) (3, 3, 1.00000000000000000000e+02) (3, 3, 1.00000000000000000000e+02) (3, 3, 1.00000000000000000000e+02) (3, 3, 1.00000000000000000000e+02) (3, 3, 1.00000000000000000000e+02) (3, 3, 1.00000000000000000000e+02) (3, 3, 1.00000000000000000000e+02) (3, 3, 1.00000000000000000000e+02) (0, 3, 1.00000000000000000000e+02) (10, 3, 1.00000000000000000000e+02) (0, 3, 1.00000000000000000000e+02) 
connections (connected_to_neuron, weight)=(0, 8.51910877227783203125e+00) (1, 7.72408866882324218750e+00) (2, -1.36470804214477539062e+01) (0, 7.76469516754150390625e+00) (1, 7.08905696868896484375e+00) (2, -1.24809112548828125000e+01) (0, 1.07486629486083984375e+01) (1, 1.40195703506469726562e+01) (2, 1.89156174659729003906e+00) (0, 1.41922845840454101562e+01) (1, 1.78117389678955078125e+01) (2, 3.12966804504394531250e+01) (0, 1.74161529541015625000e+01) (1, 1.85828781127929687500e+01) (2, 3.07163162231445312500e+01) (0, 6.04672336578369140625e+00) (1, 6.67141628265380859375e+00) (2, -2.11526656150817871094e+00) (0, 1.78189296722412109375e+01) (1, 1.42929306030273437500e+01) (2, 2.99994087219238281250e+01) (0, 1.47255764007568359375e+01) (1, 1.46524696350097656250e+01) (2, -1.63520908355712890625e+00) (0, 4.99229145050048828125e+00) (1, 1.12999057769775390625e+01) (2, 6.76801156997680664062e+00) (3, 1.06035327911376953125e+01) (4, 1.39805564880371093750e+01) (5, 2.45072484016418457031e+00) (6, -6.03063464164733886719e-01) (7, -3.18094760179519653320e-01) (8, 1.88081264495849609375e-01) (9, -5.56648194789886474609e-01) (10, 2.26572871208190917969e+00) (11, -9.57745552062988281250e-01) (12, -3.51315808296203613281e+00) 
