FANN_FLO_2.1
num_layers=3
learning_rate=0.700000
connection_rate=1.000000
network_type=0
learning_momentum=0.000000
training_algorithm=2
train_error_function=1
train_stop_function=1
cascade_output_change_fraction=0.010000
quickprop_decay=-0.000100
quickprop_mu=1.750000
rprop_increase_factor=1.200000
rprop_decrease_factor=0.500000
rprop_delta_min=0.000000
rprop_delta_max=50.000000
rprop_delta_zero=0.100000
cascade_output_stagnation_epochs=12
cascade_candidate_change_fraction=0.010000
cascade_candidate_stagnation_epochs=12
cascade_max_out_epochs=150
cascade_min_out_epochs=50
cascade_max_cand_epochs=150
cascade_min_cand_epochs=50
cascade_num_candidate_groups=2
bit_fail_limit=9.99999977648258209229e-03
cascade_candidate_limit=1.00000000000000000000e+03
cascade_weight_multiplier=4.00000005960464477539e-01
cascade_activation_functions_count=10
cascade_activation_functions=3 5 7 8 10 11 14 15 16 17 
cascade_activation_steepnesses_count=4
cascade_activation_steepnesses=2.50000000000000000000e-01 5.00000000000000000000e-01 7.50000000000000000000e-01 1.00000000000000000000e+00 
layer_sizes=3 13 2 
scale_included=0
neurons (num_inputs, activation_function, activation_steepness)=(0, 0, 0.00000000000000000000e+00) (0, 0, 0.00000000000000000000e+00) (0, 0, 0.00000000000000000000e+00) (3, 3, 5.00000000000000000000e-01) (3, 3, 5.00000000000000000000e-01) (3, 3, 5.00000000000000000000e-01) (3, 3, 5.00000000000000000000e-01) (3, 3, 5.00000000000000000000e-01) (3, 3, 5.00000000000000000000e-01) (3, 3, 5.00000000000000000000e-01) (3, 3, 5.00000000000000000000e-01) (3, 3, 5.00000000000000000000e-01) (3, 3, 5.00000000000000000000e-01) (3, 3, 5.00000000000000000000e-01) (3, 3, 5.00000000000000000000e-01) (0, 3, 5.00000000000000000000e-01) (13, 3, 5.00000000000000000000e-01) (0, 3, 5.00000000000000000000e-01) 
connections (connected_to_neuron, weight)=(0, -9.44313287734985351562e-01) (1, -3.83085751533508300781e+00) (2, 3.47474026679992675781e+00) (0, 2.98676395416259765625e+00) (1, -1.44150829315185546875e+00) (2, -7.67146492004394531250e+00) (0, 2.22687149047851562500e+00) (1, -1.40442267060279846191e-01) (2, -7.38961887359619140625e+00) (0, 2.85149693489074707031e+00) (1, 8.43661880493164062500e+00) (2, 1.25012378692626953125e+01) (0, -2.60943126678466796875e+00) (1, -2.07983493804931640625e+00) (2, 1.37754631042480468750e+00) (0, 5.30517053604125976562e+00) (1, 1.73631072044372558594e+00) (2, -1.82257521152496337891e+00) (0, 9.81137084960937500000e+00) (1, 1.00329780578613281250e+01) (2, 1.38704452514648437500e+01) (0, 4.86847591400146484375e+00) (1, 4.50008749961853027344e-01) (2, -1.23975706100463867188e+01) (0, -3.32187118530273437500e+01) (1, 3.49857282638549804688e+00) (2, 1.82973849773406982422e+00) (0, -4.01057291030883789062e+00) (1, 2.40459465980529785156e+00) (2, -1.51838648319244384766e+00) (0, -3.35947132110595703125e+00) (1, 3.09697031974792480469e+00) (2, -2.90080845355987548828e-01) (0, 5.58842277526855468750e+00) (1, 1.56092965602874755859e+00) (2, -9.89944648742675781250e+00) (3, 6.44166994094848632812e+00) (4, 5.57452440261840820312e+00) (5, 2.78314322233200073242e-01) (6, -3.47256541252136230469e+00) (7, -9.47970771789550781250e+00) (8, 5.51510620117187500000e+00) (9, -4.38868284225463867188e+00) (10, 5.97314941406250000000e+02) (11, 1.50000000000000000000e+03) (12, -5.96300840377807617188e-01) (13, 8.79047107696533203125e+00) (14, 9.54993438720703125000e+01) (15, -2.84155535697937011719e+00) 
