FANN_FLO_2.1
num_layers=3
learning_rate=0.700000
connection_rate=1.000000
network_type=0
learning_momentum=0.000000
training_algorithm=2
train_error_function=1
train_stop_function=1
cascade_output_change_fraction=0.010000
quickprop_decay=-0.000100
quickprop_mu=1.750000
rprop_increase_factor=1.200000
rprop_decrease_factor=0.500000
rprop_delta_min=0.000000
rprop_delta_max=50.000000
rprop_delta_zero=0.100000
cascade_output_stagnation_epochs=12
cascade_candidate_change_fraction=0.010000
cascade_candidate_stagnation_epochs=12
cascade_max_out_epochs=150
cascade_min_out_epochs=50
cascade_max_cand_epochs=150
cascade_min_cand_epochs=50
cascade_num_candidate_groups=2
bit_fail_limit=9.99999977648258209229e-03
cascade_candidate_limit=1.00000000000000000000e+03
cascade_weight_multiplier=4.00000005960464477539e-01
cascade_activation_functions_count=10
cascade_activation_functions=3 5 7 8 10 11 14 15 16 17 
cascade_activation_steepnesses_count=4
cascade_activation_steepnesses=2.50000000000000000000e-01 5.00000000000000000000e-01 7.50000000000000000000e-01 1.00000000000000000000e+00 
layer_sizes=3 10 2 
scale_included=0
neurons (num_inputs, activation_function, activation_steepness)=(0, 0, 0.00000000000000000000e+00) (0, 0, 0.00000000000000000000e+00) (0, 0, 0.00000000000000000000e+00) (3, 3, 1.00000000000000000000e+02) (3, 3, 1.00000000000000000000e+02) (3, 3, 1.00000000000000000000e+02) (3, 3, 1.00000000000000000000e+02) (3, 3, 1.00000000000000000000e+02) (3, 3, 1.00000000000000000000e+02) (3, 3, 1.00000000000000000000e+02) (3, 3, 1.00000000000000000000e+02) (3, 3, 1.00000000000000000000e+02) (0, 3, 1.00000000000000000000e+02) (10, 3, 1.00000000000000000000e+02) (0, 3, 1.00000000000000000000e+02) 
connections (connected_to_neuron, weight)=(0, 2.22472534179687500000e+01) (1, 1.96268291473388671875e+01) (2, 3.40598907470703125000e+01) (0, 2.44977741241455078125e+01) (1, 2.48204307556152343750e+01) (2, 3.38553047180175781250e+01) (0, 6.12480974197387695312e+00) (1, 9.39333629608154296875e+00) (2, -1.35454883575439453125e+01) (0, 8.11317825317382812500e+00) (1, 8.75714015960693359375e+00) (2, -1.46232719421386718750e+01) (0, 1.24474439620971679688e+01) (1, 1.03469791412353515625e+01) (2, 9.68748033046722412109e-01) (0, 9.07453823089599609375e+00) (1, 1.05928173065185546875e+01) (2, 2.73976063728332519531e+00) (0, 1.33354616165161132812e+01) (1, 1.12587728500366210938e+01) (2, -3.05987596511840820312e+00) (0, 1.00243768692016601562e+01) (1, 4.33037757873535156250e+00) (2, -1.22255830764770507812e+01) (0, 7.53375053405761718750e+00) (1, 4.42974090576171875000e+00) (2, -1.02476634979248046875e+01) (3, -2.27414417266845703125e+00) (4, -3.41744112968444824219e+00) (5, 3.39356756210327148438e+00) (6, 6.21304368972778320312e+00) (7, 2.70503401756286621094e+00) (8, 3.41738510131835937500e+00) (9, 1.71278095245361328125e+00) (10, 6.03601121902465820312e+00) (11, 1.21615636348724365234e+00) (12, -2.83645629882812500000e+00) 
